-0.12650359
-0.01494227
0.0004473153
-0.031328518
0.0043927487
0.0031863372
-0.04279031
-0.039143026
-0.03579346
-0.10991082
-0.0028603456
-0.026778676
-0.0038149997
-0.083044484
-0.09191464
0.00082215987
-0.052521687
-0.009727475
-0.036229666
0.0021103097
0.022585392
-0.014937806
-0.01583202
-0.058259152
0.012834866
-0.023326693
-0.015749693
-0.23135634
0.0009380765
-0.0024183046
-0.055050045
0.008686732
0.0002685385
-0.010472474
-0.0091232
-0.010110851
-0.033856545
-0.04697914
-0.020921225
-0.0395167
-0.04013644
3.2584016e-05
-0.03831885
0.017138435
-0.03152201
-4.4533193e-05
-0.09609164
-0.016731007
-0.087780006
0.024939347
-0.01622373
-0.044161517
0.0067315535
-0.114168026
0.02377568
0.0024749783
-0.0007771622
0.0071358224
-0.054689147
-0.00056894746
-0.0251382
0.00077176216
0.0085345665
0.0039676237
0.026635941
-0.001973016
-0.053154383
-2.154842e-06
-0.028502021
0.00096528337
-0.026709022
-0.012550187
-0.028168112
0.004060659
-0.010272785
0.0015079807
-0.1303768
-0.051187437
0.016185807
-0.19644833
-0.071860105
-0.030941831
-0.0028929524
-0.17075495
-0.050115936
-0.0591065
-0.01592008
-0.021952981
0.00262402
-0.011702312
-0.014829839
0.0024110205
-0.04152122
0.005957552
-0.13733064
-0.016156148
-0.028845364
-0.17194001
0.0003988874
-0.00023358359
-0.0763273
-0.016198657
-0.06620427
-0.04259611
-2.4160308e-05
-0.07075099
-0.017346047
-0.061730582
-0.0657147
-0.076315984
-3.1846415e-05
-0.037503753
-0.026439324
-0.009343749
-0.035677347
-0.058301408
-0.075350724
-0.02387279
-0.03738556
-0.011365356
-0.010575484
-0.07439408
-0.021808296
-0.013703001
-0.06010555
-0.08852326
-0.056853306
-0.07595981
-0.0013312415
-0.056825615
-0.03692649
-0.06957416
0.004387461
-0.03769813
9.146953e-05
-0.12593512
0.0011428668
-0.091996334
-0.015967017
-0.035420887
-0.08698753
-0.00911758
-0.068062395
-0.04996336
-0.031767033
-0.120249785
-0.093129724
-0.07998284
-0.042862993
0.0066829626
-0.1296263
-0.017648434
-0.05785094
-0.035274863
-0.027180439
-0.08091992
0.0025929972
-0.18122537
-0.09551555
-0.041112203
-0.0035593323
-0.005618542
0.026093153
-0.08264516
-0.03021057
0.0014456371
-0.035552856
-0.001011242
-0.016905043
-0.047482915
-0.040830225
-0.04562889
-0.045437627
0.059259858
-0.01752445
0.0021287058
-0.16981155
-0.06580233
0.00350052
-0.13158736
-0.10830006
-0.06158453
-0.002763377
-0.0076385494
0.040505987
-0.03135949
-0.10072844
-0.016206767
-0.12912636
-0.0786465
-0.008460039
-0.032236233
-0.00084335194
0.0032718584
-0.010238053
-0.15017484
-0.027814796
0.011294275
0.117953174
-0.045876473
-0.03289281
-0.024147557
-0.020540243
-0.09152853
0.0006437388
0.0037949313
-0.0016433784
-0.009800628
-0.0017126407
-0.06361303
-8.546018e-05
0.01901709
-0.06367864
0.0031098395
-0.09945739
-0.02710793
-0.043399785
7.311171e-05
-0.040880714
-0.0024444123
-0.068645224
0.0022767014
0.002327717
-0.08120974
-0.03483465
-0.04985287
-0.05902601
-0.023758555
-0.16035463
-0.09500403
-0.02099645
0.0030183701
0.0013274767
-0.039022338
-0.06961204
-0.022915969
-0.039540477
-0.0072235423
0.0017211884
-0.046634533
-0.036340747
-0.051055785
-0.025186185
-0.016335612
-0.18503928
-0.00010722395
0.0027227283
-0.020277599
-0.030514209
-0.028072197
-0.003832685
-0.07969253
0.00033397743
-0.038529173
0.04747084
0.04035823
