-0.0174918007105589
0.0044293585233390
0.0210127662867308
-0.0195628646761179
-0.0030165561474860
-0.0040854797698557
0.0092789856716990
0.0020809313282371
-0.0076929791830480
-0.0159701649099588
0.0075851553119719
0.0181262753903866
0.0075882459059358
-0.0044265175238252
0.0016428455710411
-0.0036292586009949
0.0002366427361267
-0.0254605468362570
-0.0001165731082438
-0.0017772909486666
-0.0021304837428033
0.0004611397453118
-0.0047181327827275
-0.0067407335154712
0.0119996666908264
0.0226841717958450
-0.0163630712777376
0.0069666979834437
0.0191928632557392
0.0202089622616768
-0.0214307010173798
0.0049884803593159
-0.0311770122498274
-0.0285441726446152
-0.0229767356067896
-0.0263687483966351
0.0011414843611419
0.0281839948147535
0.0312450230121613
-0.0291173867881298
0.0291727427393198
0.0239055100828409
-0.0305893067270517
-0.0163144320249557
0.0233382899314165
0.0284138079732656
0.0306501183658838
0.0223748385906219
0.0069004339165986
-0.0088991289958358
-0.0132386591285467
-0.0090225087478757
-0.0082300910726190
-0.0241934601217508
0.0082211298868060
-0.0074932216666639
0.0168198142200708
-0.0045447661541402
-0.0033774513285607
-0.0018945069750771
-0.0075135505758226
-0.0217953883111477
0.0016329413047060
0.0172206889837980
-0.0189263597130775
0.0163207240402699
0.0142588727176189
0.0112329637631774
0.0190095677971840
-0.0153108388185501
-0.0164087861776352
0.0114358179271221
-0.0294762905687094
-0.0525962524116039
-0.0527419187128544
-0.0543422065675259
0.0382074303925037
0.0502612888813019
0.0217732302844524
0.0515154302120209
0.0155748808756471
-0.0076446272432804
-0.0112563185393810
-0.0142476810142398
-0.0131140947341919
-0.0117588285356760
-0.0194988548755646
-0.0133680617436767
-0.0228175260126591
-0.0163578111678362
0.0203194990754128
-0.0165128875523806
-0.0129088535904884
-0.0192023478448391
-0.0161375571042299
0.0199690125882626
0.0017122231656685
0.0166418943554163
0.0219336729496717
0.0148226460441947
0.0026860437355936
0.0305536761879921
-0.0106993876397610
-0.0116280633956194
0.0319259203970432
0.0194423049688339
-0.0034623281098902
0.0205875057727098
-0.0246715340763330
0.0186849832534790
0.0268144365400076
-0.0301937777549028
0.0170111898332834
0.0046678748913109
0.0217152424156666
0.0094597712159157
0.0209917202591896
-0.0059076612815261
0.0239824578166008
0.0141177959740162
0.0091387750580907
-0.0002718554460444
0.0102408733218908
-0.0127513008192182
0.0002970124769490
0.0067735384218395
-0.0099653825163841
-0.0055056489072740
0.0373234525322914
-0.0359162352979183
0.0203736424446106
-0.0360790863633156
0.0223569199442863
-0.0339787229895592
0.0359935909509659
0.0413144007325172
-0.0559455752372742
0.0314589589834213
0.0575863048434258
0.0456731095910072
0.0488506853580475
-0.0577121712267399
-0.0526262447237968
0.0603132322430611
-0.0168275032192469
0.0160050354897976
0.0169594027101994
-0.0090011535212398
0.0176086425781250
0.0149076413363218
0.0159214511513710
0.0176283121109009
-0.0234688371419907
0.0032566271256655
0.0151283657178283
0.0201912056654692
0.0215661134570837
0.0201292261481285
0.0235569234937429
-0.0245609376579523
0.0212071463465691
0.0268881265074015
0.0216574706137180
0.0257971677929163
0.0232272185385227
-0.0226938240230083
-0.0288569107651711
0.0280025377869606
0.0173666290938854
0.0302696917206049
0.0278970543295145
-0.0015623606741428
-0.0065758177079260
-0.0183983426541090
0.0322188064455986
-0.0301376208662987
-0.0081949224695563
0.0062228096649051
-0.0123149501159787
0.0082469228655100
-0.0069919796660542
-0.0061015011742711
0.0089093726128340
-0.0081503000110388
0.0068650757893920
-0.0011930557666346
0.0079384492710233
-0.0080159511417150
-0.0038204323500395
0.0021355415228754
-0.0071512791328132
-0.0080814603716135
-0.0282687433063984
-0.0078447619453073
0.0295438561588526
-0.0306805465370417
0.0099038975313306
-0.0040465234778821
0.0294150691479445
0.0122164925560355
-0.0113772144541144
0.0117797795683146
-0.0105235846713185
0.0120311360806227
0.0082663130015135
-0.0085183233022690
-0.0080377887934446
-0.0106870839372277
-0.0271445959806442
-0.0418332666158676
-0.0372979231178761
-0.0173467993736267
-0.0419403538107872
0.0199612490832806
0.0401914864778519
-0.0412679575383663
0.0225175544619560
-0.0246583241969347
0.0068807872012258
0.0242574568837881
0.0234375596046448
0.0099424645304680
0.0237951111048460
-0.0191464424133301
0.0697137936949730
0.0780098885297775
0.0623142123222351
0.0739182904362679
-0.0160317700356245
0.0291618555784225
-0.0771595612168312
-0.0736784860491753
0.0283680018037558
0.0171778555959463
0.0261076968163252
0.0242420379072428
-0.0167602542787790
-0.0204751081764698
-0.0198661722242832
0.0281856469810009
0.0105310464277864
0.0114802327007055
-0.0071168858557940
0.0089364154264331
-0.0288524869829416
0.0087188044562936
-0.0162523929029703
0.0102151418104768
0.0696016252040863
-0.0609570927917957
0.0665954947471619
-0.0624294839799404
-0.0684634000062943
0.0726437792181969
-0.0397948920726776
-0.0477144047617912
