-0.00015363914
0.017229646
0.007243083
-0.0033920691
0.0035506694
-0.027577717
-0.011024611
0.01798783
-0.013980803
-0.00022035382
0.0056441915
-0.012072816
0.0001544315
0.007897813
-0.00791391
0.022676345
0.018912612
0.00034944233
0.006109943
-0.016904537
0.029098002
-0.0057544895
-0.0093727475
0.001623185
-0.0053615575
0.034083985
-0.011554712
0.0015375077
-0.032061066
-0.012794553
0.026946083
-0.013363549
0.031647913
-0.032101817
0.00937323
-0.033297665
-0.024549592
0.014799639
-0.019549685
-0.03866951
-0.05233467
0.040160537
0.025522988
-0.019843167
-0.053884886
-0.017146552
0.017131338
-0.04654686
-0.005778107
0.017464507
0.033124704
0.008817219
-0.04010402
-0.007768531
0.0043026675
0.011718797
-0.0037024254
-0.00030701622
0.00650075
-0.022768376
0.0047620647
-0.005890122
0.024827607
0.0063696597
-0.051069736
0.012956857
-0.02903447
0.034530427
-0.003936172
0.011722237
-0.013628701
-0.043281216
-0.0020140924
-0.02448893
0.0067841965
0.004581534
-0.0016196213
-0.00037819133
-0.0095586395
-0.0017061696
0.016342651
0.005637489
-0.022101972
4.6616635e-05
-0.019801471
-0.0108719
0.012590256
0.010225371
-0.06097731
0.04605872
0.03437433
0.05513767
0.039087594
0.06533571
0.008776577
-0.046866354
0.0199494
0.034014586
0.022483058
-0.006952954
-0.0127096865
-0.029618789
0.011065965
0.0080486
0.039794385
-0.00606197
-0.019234974
0.033106357
0.005631039
0.00054263603
-0.032881513
-0.023864899
0.009374143
-0.031612422
0.04166339
-0.011079172
-0.032782458
-0.011458632
-0.026901826
0.0101483455
-0.0038327395
0.010894738
0.0042859023
0.013502989
-0.00035102034
-0.006792063
-0.022382524
-0.020113109
0.01042166
0.014938333
0.0020403662
0.01749739
-0.0067191804
0.008265527
-0.0060370956
0.018051172
0.006816595
-0.027297541
-0.0044842646
0.017593568
0.013637369
-0.013235005
-0.0036140154
-0.024933048
-0.020304639
-0.0022491745
0.00782977
0.015256283
0.023796685
0.0062580234
-0.011527561
0.008282875
0.011037982
0.022288501
-0.007992918
-0.037212677
-0.023515653
-0.009316462
0.019072825
-0.024843916
-0.04140994
-0.04423438
-0.018745013
-0.033184092
0.0056901015
0.016885439
0.014422311
-0.044204243
0.010300343
0.008154677
-0.029715251
0.0005969678
-0.03823804
0.0021569864
-0.0014602608
-0.020894669
0.026846511
-6.892783e-05
-0.034975402
0.02455625
0.013758305
-0.022436723
0.021185862
-0.004980831
0.020842612
-0.006941234
-0.024275921
0.0188387
-0.004477085
0.030121572
-0.0154586155
-0.018575821
-0.025778875
0.028779084
0.01665418
0.031405333
0.03707581
-0.031818394
0.03360079
0.041698705
0.039112147
0.027420236
-0.03143792
0.03166198
0.016834788
-0.027380764
0.016522909
0.014481941
-0.012405847
-0.0136592975
0.02806864
0.011982456
0.021990346
0.039729252
0.008186729
-0.010274423
0.015824327
-0.020279033
0.015975114
-0.026207238
0.015024981
-0.017605245
0.014749341
0.009485281
0.03374975
0.009738942
-0.0014498134
-0.009931731
0.05733216
0.0085213445
-0.035261467
-0.06001866
-0.022411669
-0.00085753854
0.007273004
-0.033457577
-0.014460235
-0.03164755
0.005310494
0.041093133
-0.02732806
-0.0039605144
-0.016410375
0.02701442
0.02537144
-0.01354743
0.0016964078
0.004878569
-0.022230234
-0.021216197
0.008817119
-0.005848752
-0.013661644
0.0015268469
0.005358239
-0.013393078
